Date,MMM,AOS,ABT,ABBV,ACN,ADBE,AMD,AES,AFL,A,APD,ABNB,AKAM,ALB,ARE,ALGN,ALLE,LNT,ALL,GOOGL,GOOG,MO,AMZN,AMCR,AEE,AAL,AEP,AXP,AIG,AMT,AWK,AMP,AME,AMGN,APH,ADI,ANSS,AON,APA,AAPL,AMAT,APTV,ACGL,ADM,ANET,AJG,AIZ,T,ATO,ADSK
2024-01-08,0.01894130616286579,-0.016690213480189512,0.007906844118745468,-0.034889439335671395,0.0016477998396488233,-0.001971013196158014,0.014508094343777408,0.005365108932338792,0.009290174946720957,0.006486635940509515,0.0006797491865273068,-0.021855995487229708,-0.008437211774855038,0.0013158797554103365,0.015400238329079621,0.026855209367739448,0.007245860157780944,0.01260018973751353,0.012942382948357882,0.01287382594097554,0.0032860598408290414,0.006231583277968857,-0.011453402197043066,0.012048714844250552,-0.008351253026252689,0.010387713619923068,0.022780674507404213,-0.015773485245856315,0.0043542678927848055,0.04742371239371783,-0.1617132337964885,0.014531879159645796,0.022937663464562608,-0.0034646161713362,-0.02588687341721075,0.07555134592419233,-0.007048166197141745,0.015680398240043553,-0.008894966195098188,0.02460477661985434,-0.039497488089275765,0.029017804888098853,-0.02412945833747695,0.016535256643281152,-0.0013457669807708649,0.014587613395800402,-0.07940922367426552,-0.02814613367538336,-0.0010420597222964038,0.025981235579651367
2024-01-09,0.018929135517574545,-0.01756912096705497,0.008034666360202117,-0.03432290830585161,0.0011037254532781644,-0.0017397084911490552,0.014497261846268452,0.005280005842000008,0.00984019946882115,0.006239607816754702,0.0005373389381551025,-0.02159902789811329,-0.00888090859883418,0.000658854664076808,0.015411548800650368,0.026879791774485334,0.007270784061061062,0.013268654560714448,0.013016743256854106,0.012926834232039847,0.002897100677126084,0.005906443008721554,-0.011321538532429445,0.012402598581028266,-0.008493234192485339,0.011074061293550768,0.022580408834052292,-0.015860880970932353,0.004413264370836673,0.04427676403102606,-0.16146943361471483,0.014542394648124705,0.022935352819311156,-0.003387944525463078,-0.02576888679841745,0.07597746482171536,-0.006373405061937358,0.015594751320443944,-0.009870784088985998,0.02477758434527906,-0.03783448824277041,0.030017242007597245,-0.023711403314122925,0.016382168027840927,-0.002109343058240373,0.014135028221668395,-0.08115214356294584,-0.028135853833832117,-0.00039898594171950563,0.028192220398741287
2024-01-10,0.019028709658035773,-0.017776333088729942,0.007718570272525578,-0.03395067911123484,0.0005897453247448652,-0.0010911404628593984,0.01454450156457658,0.005435383072124917,0.010117234516565425,0.0061633078672038285,0.0006951304512554539,-0.024129148405388667,-0.008958605515745595,0.00021404550569575808,0.015482391490089249,0.027244203783562532,0.00732332331758812,0.014077305400937113,0.013069765651223532,0.012963043770797407,0.0025542502565419475,0.005584152974860294,-0.011419954324744798,0.011985158248046674,-0.00842277566047292,0.011186555096921867,0.022788623194674732,-0.015645272037593853,0.004387173871930658,0.04366629241132188,-0.16229205443618935,0.014644699786298156,0.022861395449798896,-0.003242455480020785,-0.02554451280523527,0.07732210810904801,-0.005686760497752947,0.01560397340579687,-0.010301735828490822,0.024989241925695804,-0.03652600657488635,0.027957275282231884,-0.019345552993172043,0.016313512964495448,-0.0030921628168027525,0.013714997994842593,-0.08320926404012195,-0.02799456093566821,-0.0013710249848895224,0.02977392738056813
2024-01-11,0.02035334881868564,-0.017599746150086807,0.00789898439631513,-0.03274496692078384,0.00034087502705783935,-0.0005411801000613163,0.014620079135652183,0.00571249006521238,0.010274178988067944,0.006188186600803595,0.0010303330318093987,-0.024525380081487937,-0.008870078128599105,3.748209433992131e-05,0.015494334821305565,0.02715791497048134,0.007278844109646551,0.014660089175260734,0.013131897649982694,0.013045884249114622,0.0024216754936200523,0.005570270198496392,-0.010935787491182089,0.012383197678874294,-0.008965200618802968,0.010799946465706749,0.022398904539760803,-0.014959979092943677,0.004797941170338359,0.042075653901666586,-0.16003531032931506,0.014167625077204734,0.022791715539009157,-0.002654712836833485,-0.024604674620876652,0.07730190590128277,-0.004616505033415101,0.01536651912631854,-0.010280784706024252,0.02501877299609933,-0.03357919757537438,0.027405046214460025,-0.0194662116680359,0.01610983679882373,-0.003721773504973133,0.013413000132015516,-0.09330689731776827,-0.027313383510852118,-0.0012782303125838813,0.03075306563258718
2024-01-12,0.02029533246677551,-0.01796334399882321,0.007998401058015112,-0.03248413017978431,-0.00010316109248380673,-1.208252906269201e-05,0.014533767603786668,0.0057697455212663675,0.010117955055072793,0.006012343793561141,0.0009669047926409481,-0.024500531332538718,-0.009035025538978553,-0.00026553162567143773,0.015458842345673435,0.027203588798654456,0.007297284841801339,0.015106626873642864,0.013141660227913774,0.013028349433301807,0.0022281631872380714,0.005399565984801413,-0.01117878886415407,0.012877136877587533,-0.009049656726786192,0.008643716589236298,0.02210266231897789,-0.01462804012476657,0.005025418999891851,0.04164320089387291,-0.1573664912755042,0.014127530883793862,0.022612804116084625,-0.002090235213888516,-0.02417933514233094,0.07963914796324707,-0.003822494108971227,0.015184553918798529,-0.010530170298788255,0.025021793463287187,-0.03281775831154075,0.027434114852823783,-0.019684680542494143,0.01589084301268288,-0.004472068688178347,0.013358617595088745,-0.09660113703793576,-0.027330951066256753,-0.0018843863010615922,0.03187992653048096
2024-01-16,0.020433043467972475,-0.018483851797432383,0.008383094878671988,-0.03248134687270208,-0.0005831280518744272,5.774748634057168e-05,0.014509717162364644,0.00579597624125532,0.009892120038346873,0.005950048232897864,0.0008670917572490876,-0.02415271717508163,-0.009488409676874173,-0.0006834832170878521,0.015469981413651619,0.02744803711585566,0.007195543270842106,0.008511480171028573,0.013157880436928478,0.013046660884807623,0.0019348323986587332,0.005317086379088801,-0.011307318901618938,0.015777951056204796,-0.00930278026978054,0.009109037048462446,0.021985622459288957,-0.01468519432407473,0.005134035158206933,0.045109784884787396,-0.15947693162189405,0.014122182787663183,0.02280996236422869,0.0008759466193304543,-0.02391407915424845,0.08168203095799371,-0.0032683326985526147,0.015110507958604818,-0.010790661960455623,0.025238743162667897,-0.02600455679096732,0.026630773824080044,-0.020399882257652064,0.01564867206699809,-0.004924784385216062,0.013766581471732616,-0.10020302346547921,-0.027873660336016327,-0.001975857042991499,0.029027826843789486
2024-01-17,0.020157268097069633,-0.018686717927745088,0.00842786764058629,-0.03207038387458563,-0.0010497127891733206,0.00017632898882324983,0.014223110769900866,0.005911045196789588,0.010052956864088084,0.005702020024444493,0.0007257866443969443,-0.023927492331375675,-0.009678663448108374,-0.0011070036677245767,0.015178363385356492,0.02710883716328529,0.007011282075852288,0.008136394016594347,0.012920935848521803,0.010538309854224841,0.0016552380702305953,0.005143885222191446,-0.011431669846309793,0.01579836637378255,-0.00943101388796061,0.018268333025011376,0.02127058271496989,-0.01445917103921474,0.0053310882938258485,0.04069841281027244,-0.15850339579611017,0.013837447750523386,0.022383624319659578,0.0015261429790036718,-0.023287735680901513,0.08238239674690931,-0.0022766673727604822,0.01477423290362856,-0.01065135283621701,0.024925041207866774,-0.025886443147186293,0.026038821414505378,-0.020373252515330408,0.015131450006742557,-0.005186602268453557,0.014438493728117084,-0.10076907394744762,-0.02820599906232135,-0.003017648561073885,0.030125935862825633
2024-01-18,0.019740332913794206,-0.018863555876963,0.008706214641475064,-0.03185465061808333,-0.0015397695615348996,0.000327612982006446,0.013793477098345268,0.007101685987318998,0.009361404408368771,0.005317670508224278,0.0003322309845836402,-0.018613436185732496,-0.00986996048128639,-0.0016952572605912987,0.014756179214281753,0.02531794039465658,0.00662604346847908,0.015383568997186927,0.01257542016144103,0.010117552164623147,0.0012442751114809872,0.004809966596021506,-0.011901665895308031,0.01613458314646212,-0.009754444346156821,0.01823229157634343,0.020877643126794757,-0.014603620088940153,0.005166264031462605,0.03984414738718675,-0.1600630201118083,0.013445271374377725,0.021907161566071066,0.0020216313406719684,-0.022795462502562928,0.08278328182285802,-0.0019167685612279058,0.014341816285264986,-0.007078127221589925,0.02364648953708563,-0.02654413173970778,0.026122773066387016,-0.02121502115095155,0.014508404212151856,-0.005671474302518954,0.015089730706937657,-0.10348554501278039,-0.028946101037319864,-0.003587988044935973,0.03036693518765669
2024-01-19,0.019623707570393414,-0.019257357729345285,0.00894530309408698,-0.03144632301258645,-0.0017830012521410016,0.00023111269947757783,0.014217897379753342,0.007486692802992575,0.008875559764959481,0.005119592532262197,0.00023995699559972348,-0.018726033889305355,-0.010027815326269252,-0.002215014300994159,0.014514156472381143,0.024693280477750813,0.00631804094023821,0.01573125848001155,0.012393485965438508,0.00993409923597845,0.0009291137390857996,0.0046652116164620705,-0.01200727613751973,0.01642270189464326,-0.006741546226057561,0.01859267603410646,0.02050146182176951,-0.01566596486589849,0.0031136799877411647,0.03942867615436438,-0.15999529716248084,0.013241934039835295,0.021895178968544423,0.002536765694876072,-0.022766875619743016,0.08369614922379733,-0.001133879873763992,0.014043206882151415,-0.010831734330728805,0.023411468645158414,-0.026250597516720698,0.026236365826620686,-0.021524060922487123,0.014119254591503346,0.0005135149867894976,0.01632100172846044,-0.10525250854450657,-0.029704103765057648,-0.004670609524394012,0.032007493752766424
2024-01-22,0.01911371652849299,-0.019675500017217098,0.009186377271357517,-0.031188070175979563,-0.0021306725246259648,0.0010977226368879304,0.013226864180140544,0.008720044405765922,0.007901452188170595,0.004623234955183907,-0.0001361338110771785,-0.01815243029770535,-0.010361067333375225,-0.0031373364570431266,0.013967808095178353,0.023942611102431503,0.005815491291805566,0.015888726173610007,0.011753391135223536,0.009444269193087922,0.0005266814325082992,0.005250298597088344,-0.012757900062305151,0.016257675170125326,-0.007112374783228063,0.01829814290277418,0.020077903091614505,-0.015507197896775833,0.0027221045963266377,0.03882451813569116,-0.159761807324518,0.012769700597894179,0.021471871025816328,0.0027934252807645756,-0.019584104183415885,0.09125227068462295,-0.0017302815743931775,0.014546629121289085,-0.006202666953819557,0.02290778557781987,-0.02723171351002747,0.02611812996596284,-0.021875570653955286,0.013386616382410555,-0.00042699203483952266,0.015885629161821763,-0.10735971109060653,-0.030511721687184207,-0.005156747627907934,0.032228909118133
2024-01-23,0.01884714809092817,-0.01943828238796815,0.009433869762172331,-0.0307318990989487,-0.0022980345120416374,0.005811599546790804,0.012915629869587315,0.007883514973308489,0.007078739915034228,0.004455820106578868,-0.0005235640383366909,-0.01830554428223298,-0.010335890806745634,-0.0035921914104952656,0.0136441937683048,0.02336809052661579,0.0057696690466127205,0.016313492458099585,0.011538558235638277,0.009280454992423954,0.00011268866995591606,0.005006968008829472,-0.012470066824420555,0.01632818131406815,-0.007133453614880105,0.018394766711733106,0.019150352208562118,-0.014941858746847503,0.006928782425854886,0.03847899779093307,-0.15852418595954926,0.012513852912412258,0.021019659550361402,0.0033845754997187576,-0.019194897571468122,0.08700344441289093,-0.0015791297983849867,0.014093760062667899,-0.00734913254673271,0.021795378653204626,-0.026804377609710738,0.026563180884598952,-0.021882902173443138,0.012921126206346705,-0.0008489100315990786,0.01590658022350818,-0.1067869118726542,-0.031096050099122398,-0.00616271661441819,0.03405692317225832
2024-01-24,0.018840528153475967,-0.01901658743648052,0.01124340254963806,-0.029654847105292745,-0.002067918022864066,0.006899259672400897,0.012888107170392087,0.007362804519315929,0.006889916776166783,0.005860673211664009,-0.00020020906923244857,-0.017167003091156798,-0.009770926162377418,-0.0034932075287329983,0.013656450267157436,0.022967353769876724,0.005944956520411994,0.016502815120682367,0.011578102494929774,0.009387969430617283,-0.0010426708109153183,0.005170762000579372,-0.01165374183451603,0.01679606928298851,-0.006624650476544431,0.018556187764415,0.01891129076873261,-0.013399689438618224,0.007422802055936697,0.038464807348264476,-0.15591436545416454,0.012515750891896492,0.021282487720418852,0.004369749932026781,-0.017966934578611562,0.08603007048446161,-0.0003198888038589033,0.01388644300404166,-0.00944405600618543,0.021602790609252895,-0.03851196135140755,0.026916711653678562,-0.020699226066348102,0.012647045724658275,-0.0009295220992017122,0.021831898431287952,-0.10488745111656556,-0.03114533368725911,-0.006089809859666532,0.023572792670630845
2024-01-25,0.01875997465020405,-0.014054088411583256,0.01172473466799542,-0.0291363606525016,-0.0014763605600105444,0.007681131556033848,0.012794155268341535,0.006826813170530037,0.006380175036072607,0.00594063193941567,-0.0003086034874936518,-0.016961133293488088,-0.009518052868966374,-0.003210458958579467,0.013560980545150857,0.022648667161534318,0.005752119222311591,0.017020631121976652,0.011588856926099235,0.0094841537823254,-0.0013911373110042946,0.005184010147599595,-0.011370364225771097,0.017168356887237553,-0.0063471792798468684,0.01868226759636451,0.018483302069586923,-0.012752579045323328,0.007646187519500668,0.038839572215688414,-0.15428598760160273,0.012476881667061205,0.021138516805068397,0.005189336737066075,-0.017282369237348466,0.08556986208737917,2.210602488692964e-05,0.013669512305513607,-0.007831627238992465,0.021093263286385944,-0.037544050480632356,0.026800124058092258,-0.0204270035778377,0.012427793938957116,-0.0010350610280070972,0.02090640595626438,-0.1192245007415193,-0.031570718041423064,-0.004272363958068202,0.024539475649356258
2024-01-26,0.018520366284234622,-0.01406405330946939,0.013968240096334749,-0.02880323440912154,-0.001942201893818289,0.008150011970503154,0.012454396752414464,0.005777801922234185,0.005800051834630332,0.006052175733521604,-0.0006176046524782623,-0.0161166354029603,-0.008860111916336436,-0.004407815022863756,0.01289630915670323,0.02219012606190591,0.0054789584180937444,0.016938569904786014,0.01132716188343805,0.011301427398827254,-0.0016636239466409522,0.004971197215535124,-0.011260355180815562,0.01716791264571779,-0.006295513248575395,0.018796720846856605,0.018114212969291325,-0.012058361842503435,0.007783210830089763,0.04251302835549536,-0.15293276256902288,0.012160999522892142,0.02082318850583573,0.0057471732381452895,-0.016529095994103918,0.08472752316154826,0.00017119143457824113,0.013184933604650118,-0.01200869272568697,0.020557601084122183,-0.036671712864829016,0.026719271394614892,-0.020359536639977825,0.01191887339342086,-0.0013902332083266982,0.017667735352291318,-0.11699240042028254,-0.03251487965784654,-0.004511175094340126,0.026119629027287653
2024-01-29,0.01848615822088987,-0.013702036163550618,0.016052305013075915,-0.028218891462179894,-0.002030746808196232,0.008853830918519752,0.012343862292931362,0.005066136486514407,0.005348388441021256,0.006628821847735424,-0.0006571506320687735,-0.01551953222882845,-0.008574169201600604,-0.005806857644214652,0.012830814274796022,0.022256910197634996,0.005449889448212829,0.017205911512893395,0.011322975311758632,0.011198067927379755,-0.0018906687748535447,0.005040748283017828,-0.010877264031451086,0.01757906203379495,-0.006396846847916477,0.01823358759890166,0.017931769518317868,-0.011101103358562143,0.007838894391273268,0.04258825154571382,-0.15268151602738733,0.01210707237476311,0.02011970464854963,0.006605922057937285,-0.01588574532235328,0.08251862025154919,0.00018295089596498146,0.012939328282840981,-0.01317693699044524,0.020166537272526104,-0.035680051794074436,0.026781637816966308,-0.01989373053363497,0.0116767784281923,-0.000966620047993419,0.018918213289140454,-0.11935698410104642,-0.03320676827367261,-0.004376379755969746,0.025726849417186472
2024-01-30,0.017757996368393907,-0.013010758669145098,0.01802609533178749,-0.026751144160652707,-0.002142710081203228,0.009192756254791523,0.01176356825667509,0.0043356548501869195,0.004929351108031576,0.006887162573154582,-0.0007445802114922034,-0.013711501826026366,-0.00795781660560304,-0.005569396256166966,0.012267174872112105,0.021472020809408347,0.005086085410274099,0.016791073609844876,0.010856059478533332,0.010503903315986062,-0.002076496363973113,0.004689852078752835,-0.010009429165382545,0.017524888961078237,-0.006650407311074566,0.01782573383462817,0.017081031544448885,-0.0029475282744166804,0.007758274766086293,0.04150731642274767,-0.14512317236002362,0.011564285006867429,0.019323776814114475,0.0070652875625546434,-0.014708268400352092,0.07915570169476156,-0.02178648138778861,0.012191088007767796,-0.012943856002765963,0.0189561668729416,-0.03340692370420839,0.025675651451581627,-0.018847311011654596,0.010966222024819566,-0.001320348463776328,0.01897783013963525,-0.11562704145070474,-0.03271191282345702,-0.011952915470132107,0.03986799057803405
2024-01-31,0.01784408122588835,-0.01423580860171818,0.024906105407063266,-0.028489301516549104,-0.0031307135848380402,0.009559987176525684,0.011472012813253558,0.0029059185421296788,0.004081894326276673,0.010784791126248255,-0.001785214136347369,-0.013988447376916107,-0.009127413114597421,-0.006532042211507596,0.012026889625997576,0.021714620762388812,0.004554992880152812,0.01674920112524733,0.011265656919802407,0.010007943050090434,-0.003124866424830311,0.004121633044778034,-0.01298225934978704,0.018142195266411476,-0.0076999688433763815,0.018513363539967964,0.017062853324807347,-0.0027837951501709507,0.007386035862575852,0.04313822534288665,-0.11515883379181531,0.01130593413931445,0.019627467008466903,0.007489429305634735,-0.015241686747722303,0.08129206660153092,-0.02045853094499423,0.01178743011574585,-0.01510812323713664,0.018738287516883875,-0.035026142642977987,0.02654032765266912,-0.019757664249941118,0.01042740595403009,-0.0016756411341288574,0.02017978764648082,-0.12406201697571048,-0.03662507473993854,-0.013006455224995819,0.026373462696751077
2024-02-01,0.017808154774571407,-0.014487096200996263,0.02702021926908225,-0.028584769362714275,-0.0034944452316409288,0.010015706125103364,0.011305032907126436,0.001780269204752554,0.0036856147543966092,0.010927755815356117,-0.002224423339504134,-0.014242791502738989,-0.00907988823371974,-0.0068647702646796,0.011933077924543045,0.021787420257247038,0.004325365802966771,0.016503534884040303,0.011198173916270343,0.009617064046988949,0.001211365618782888,0.0037275534012959064,-0.012957403800132454,0.018427796045275835,-0.008087040803531861,0.0181835127574987,0.01687693883502306,-0.0027310793670115006,0.006359875081242129,0.04372293370241422,-0.11647709914763012,0.011179013345793432,0.019505919327148548,0.00815047489058276,-0.01405656337601728,0.08019778002275792,-0.02135502547601582,0.011517581691808425,-0.009358779410157399,0.018296072825582238,-0.03485080083375485,0.026329860992812402,-0.019933388962958026,0.010160341030741015,-0.001759059677471737,0.0209675403369779,-0.1274239483064918,-0.03855893121252533,-0.013472695490308023,0.02727805041181739
2024-02-02,0.017666825652877152,-0.014016945753010783,0.028013880425365793,-0.028691623230800427,-0.003848812445647655,0.010362699408674268,0.011080674054385628,0.002313796890802477,0.0032991076311293327,0.011131207632296742,-0.002124930369696172,-0.013328988506979783,-0.009165739487171273,-0.0067252261014543275,0.011763819166650466,0.021616486520785533,0.003755115779724914,0.016243374591778922,0.011081333368885506,0.009299036577902823,0.0006900894423967893,0.0034986264966876362,-0.012983294236374846,0.018616762588312928,-0.008479278558631701,0.018011996593494336,0.016936786725638663,-0.002055429106402563,0.006224117432549479,0.04392235867761836,-0.11750724746231497,0.011019655586833538,0.019395745573205978,0.00866047993931406,-0.014083458064098484,0.08000435851147394,-0.019653681821434288,0.01111841108668352,-0.009414441623239872,0.01783078549700531,-0.03433553293308781,0.026484528549349393,-0.02021596110243271,0.00971042308648845,-0.001700783966565606,0.021618452071815668,-0.12722992614447062,-0.04041294115639131,-0.01402575792979483,0.028629064439872367
2024-02-05,0.017427297767967878,-0.014712972120215304,0.027323876384495658,-0.029878042893764212,-0.00451864703116221,0.010628004500142606,0.010658094311957557,0.00040786697565002697,0.0029295406554551776,0.011312302950235466,-0.002426471821403968,-0.01358302376932014,-0.009994820193636306,-0.007300557784827979,0.0119325720907324,0.021442423122723316,0.0031812716213955664,0.01551846716885819,0.010811035468115382,0.008806584423933127,0.004863692592878944,0.002925645364778535,-0.013296945310166335,0.01883539988846521,-0.009400492515838526,0.018177005789123728,0.01650386469102621,-0.0017402439825984278,0.009776884090938699,0.0446279641743499,-0.12173016212014828,0.010642096955298537,0.019140630218564058,0.009014918486671823,-0.013789205959862171,0.08069655474698809,-0.017175366187523716,0.01052850140690314,-0.010000486915230148,0.017207507122738493,-0.03488867977172637,0.022577071966064642,-0.020949494620747317,0.008880050240152502,-0.0021580942615466174,0.022258618368933038,-0.11473537053472055,-0.042650936489036034,-0.015069985716525182,0.03096425645446202
2024-02-06,0.017431236966789106,-0.013435277897380984,0.027258175801399342,-0.028101378865142256,-0.0037903649785593872,0.009996870551988573,0.010883462376342643,-0.002874595748584475,0.003355280039090857,0.010728962318447593,-0.001372961271984403,-0.01208137438636758,-0.008870629104011303,-0.004522210648920844,0.01214173960360023,0.021470418853794197,0.0038471052291135614,0.015561527106418498,0.011158933665689612,0.009082609767903746,0.005604883955756766,0.0033306306027647797,-0.01196076324355254,0.019162720604038033,-0.008549346573536683,0.018032080478309467,0.016326407713528317,-0.0008181312886848635,0.009544640469963334,0.04347785710411099,-0.13967688249294882,0.010934659096961208,0.019162964985078846,0.009876782127959697,-0.01251140875831969,0.07740775266064445,-0.014941743964238025,0.010651577609521077,-0.008458117258004143,0.01699182040160732,-0.032464547193279694,0.02235300633877477,-0.01966248143943625,0.009162265206808089,-0.0007823737489225341,0.02267715701748757,-0.1164120125791038,-0.04171236826638349,-0.0170010302926383,0.03238647134610727
2024-02-07,0.017249032374167007,-0.013157362269488436,0.028029071821806605,-0.027555175436243636,-0.0034050409383547327,0.010390850831698334,0.010779704883465035,-0.002540324023455763,0.003498078560134565,0.010601267343295662,-0.0009534852008906713,-0.011390702625668558,-0.00864399392932416,-0.004802293290317769,0.012244446732879858,0.021374904319010075,0.0037145919073253023,0.015200964040006664,0.01116818567320091,0.009025953130427655,0.005689010701446595,0.0033827300993840882,-0.011556802946337036,0.01915926296052259,-0.008512448681529259,0.017564037560888465,0.01611980522421797,-0.0006616049918640592,0.008893508419646754,0.04335894431110498,-0.13913401797768857,0.010858183078940495,0.01896029807309528,0.010435502502306616,-0.011177854579470702,0.0772303648864126,-0.014051219164893408,0.010425368398186915,-0.008187929331925222,0.01656437617601274,-0.041272075259266114,0.02223433511297161,-0.019386240238373296,0.009051382744907977,-0.0012015857009856396,0.023084042202170703,-0.11271436458232262,-0.042224739997488554,-0.017470738834111783,0.033711795930365905
2024-02-08,0.016814420712404365,-0.013712853803856133,0.028361598617487407,-0.02813171111924457,-0.003617125519289744,0.010917764361704278,0.010358717248902378,-0.002727066840823619,0.0030473078585046497,0.010629062248392529,-0.0011815696631878585,-0.012472730361925722,-0.009511162621280666,-0.005804373621473392,0.011337949121741582,0.021198661172173103,0.003173191811338409,0.014389386242177775,0.01081710335321625,0.008585818430054813,0.00541648859566878,0.0028032976032519195,-0.0117792840389662,0.019008749508828398,-0.00907421645205207,0.016518941583672588,0.015723798065838294,-0.0004975193224723894,0.007536111225692091,0.04398996785264388,-0.14133964357338052,0.010504238270673864,0.018493811825593835,0.017103924518517433,-0.011121623641267562,0.07816768519592152,-0.014686469964633535,0.009877686243454881,-0.008534431262286674,0.015973327611076962,-0.04214230045291076,0.021952330130974165,-0.017580527106040623,0.008612636641706447,-0.0014980774190662064,0.02313635159499273,-0.10097001815467534,-0.04429204592184482,-0.019325249139321574,0.035549672353394665
2024-02-09,0.01620190673348483,-0.013074178422844829,0.028390382544441206,-0.027989868444761923,-0.0035058781304314686,0.01150861697193306,0.009898870129901153,-0.0039352824463586,0.002728884548072472,0.010607073678741918,-0.0012219283402215432,-0.008086395865043205,-0.009609145332178794,-0.006442957365481217,0.011484679335521131,0.020733068754464016,0.0026502612240165333,0.013739141646330288,0.010482133578720562,0.008228579806784422,0.0050189715963088475,0.002403996944327876,-0.011832491800262968,0.01864207220474019,-0.009411982266625105,0.015426484181073803,0.01543730238069343,-0.0005664314622195602,0.006006797764300078,0.04396785340812393,-0.14196523399407524,0.01009801318480787,0.018192401072706175,0.016843950201462902,-0.010691387973566098,0.07860276241067286,-0.013329780658554965,0.009332571914867053,-0.008779323900145778,0.01529051099903278,-0.04189855753288135,0.02147306896723099,-0.01732179037416905,0.008177045148364686,-0.001863090626835227,0.023216165897594017,-0.10212156758334759,-0.04492356038728039,-0.021429167092715168,0.045216432771281026
2024-02-12,0.016209696339756594,-0.01278517602850766,0.028776769486396,-0.027646852856177358,-0.0029185518803777387,0.012803530385509503,0.01004914675154524,-0.003973939160843778,0.0030269509289315116,0.011203799484845454,-0.00048069834880372803,-0.008900707610767373,-0.009701713194622399,-0.006524340157247145,0.011708540383740623,0.021108613538227128,0.0027685202718713726,0.013912868353457586,0.01068802120261254,0.008440646157403937,0.005327390146368282,0.002557550135204611,-0.011370523464190044,0.018975544702930936,-0.00934198965775582,0.015114726718025395,0.015614875972036445,-0.0008828503204508981,0.00419798088443186,0.0439956379953478,-0.13996539251050744,0.010296397979138061,0.01838632450523365,0.011010583399840547,-0.009999239275432018,0.07992006349020807,-0.014131160157177833,0.009419495791445435,-0.010270698231026422,0.01509579797484633,-0.041221077466743083,0.02367138325812628,-0.01640840189598253,0.008314987920629041,-0.0015896289164505494,0.0219636048650734,-0.10440722477528078,-0.04522739316006548,-0.022252440931589956,0.04544055097681652
2024-02-13,0.01560664852899465,-0.013595014588137047,0.02882738563502949,-0.028595774975564318,-0.0030829112682774634,0.013040556711838604,0.009527115580807686,-0.006096089845090948,0.002685379095048695,0.01214359479748064,-0.0008813892175489158,-0.0069416427336106605,-0.010786807893937538,-0.007264487385054487,0.01152999697904018,0.02101727732905323,0.002128718066228686,0.012967715505774843,0.01032006904658104,0.007949263741679743,0.005008513074518227,0.0020244515281789195,-0.01196487354787468,0.018765409259190215,-0.010041193077633147,0.014567548213947007,0.015320472138749219,-0.000643744985498014,0.002300375513765984,0.046938905768449626,-0.14243925553215553,0.009832980089618614,0.017993467979634668,0.010871040843055586,-0.009457965750731608,0.08237481404826785,-0.012136287828313849,0.008757251772667465,-0.010463123813089982,0.014413203407560853,-0.03204984163770884,0.02350312415873508,-0.015802243109809978,0.007795922230356593,-0.0014903281694025933,0.02323802899252072,-0.10463587057006794,-0.04737120343865429,-0.02425995063183819,0.04855076996322575
2024-02-14,0.01507053058970399,-0.012915358936215416,0.028664894463196998,-0.02725294238299706,-0.0021397498012483995,0.014305905012996256,0.009676352078239766,-0.00658886472765946,0.003135112938084951,0.011523866418606121,-0.005640920487904308,-0.004443952247025061,-0.010350946312042763,-0.0069932728559872585,0.011682482309602577,0.02110002710234657,0.0023668505287453077,0.012669389761831327,0.010518368685387428,0.008058590961496387,0.00502272165472962,0.0023178192610878163,-0.009228447057932349,0.018490081461818002,-0.009539748024244007,0.013316756916809653,0.01534061971397135,-0.0007959510648634979,0.00046722379468414044,0.047190854524078424,-0.13986462631363855,0.010024340457094924,0.017736169525866766,0.017043921688802952,-0.008530457581783616,0.08258441427024284,-0.012821847297513081,0.00880747247076295,-0.009990258668902236,0.014071641550470566,-0.040696248105822584,0.02346986793770255,-0.014283951148612839,0.007985313384342389,-0.0011714379405080235,0.02030791939164884,-0.10511580049437463,-0.04661459165932932,-0.02502062689139556,0.0470504911456486
2024-02-15,0.015965166630461332,-0.01282124104900002,0.028894806968654627,-0.02780708291553551,-0.0014331008070799073,0.008198437891215877,0.01003041164966097,-0.007238831895317795,0.0036070639029615963,0.012322465513345548,-0.005274010540260139,-0.002760434960024449,-0.010448463714067279,-0.006865157717585775,0.012146504143982386,0.022100570708751453,0.002523898619700023,0.012931843665604684,0.010988076943892812,0.00826670182059363,0.005394045191934265,0.002513191833092325,-0.009536115919222989,0.01902402139594312,-0.009644770132991892,0.013014371796551641,0.015893290971260427,0.00027707965833233505,-0.0009599451985452511,0.04831804344659017,-0.14048141861138255,0.010454664482860575,0.018133329367529805,0.011714045819747745,-0.00761267479958778,0.08573742600359524,-0.012808860966813797,0.009104142554344231,-0.009738403047570603,0.014119393298194354,-0.04058261087970429,0.024039975941212405,-0.013523130652313472,0.008314811196798286,-0.0010120079372278842,0.021797773290693687,-0.10562046985118403,-0.047609693577229564,-0.02622157482735492,0.044174445292494244
2024-02-16,0.01544401303021123,-0.013326418163095141,0.029335199786240117,-0.029134767591793623,-0.0010137052224924203,0.007109988930640415,0.009991770076971565,-0.008310314237211996,0.0036859904855723164,0.012752592963331442,-0.0054101025589766,-0.001038390648400674,-0.011315535366505829,-0.007230475218899847,0.012296438250280354,0.02270548696916075,0.002323209653719183,0.012469798650561916,0.011121389127822155,0.007720159673599015,0.00531214858684661,0.002431251996240194,-0.009448247466852404,0.01917154365758907,-0.009999158553394531,0.011357955186896227,0.010615640015176134,0.0007599686221245516,-0.0028848392077704,0.04884138927498642,-0.14252756396239827,0.010477714620786723,0.01828443747482653,0.011958640574104796,-0.006930613240471893,0.08919912551280375,-0.012316530360397978,0.008967830472667136,-0.009461180185948265,0.013891006322240997,-0.031662152984474015,0.024325463108784653,-0.01284532703354439,0.008267124093665649,-0.0006404615055188437,0.021763396410588883,-0.10597603053447244,-0.04955765757645963,-0.028970528380920964,0.047419326471561385
2024-02-20,0.015089654612551304,-0.013516134051386222,0.029465759916845823,-0.02955006166122059,-0.0003892869211772221,0.006125638297421053,0.01002764556306082,-0.009428424452743972,0.003921018545633782,0.016170725473156896,-0.005310274100638878,0.000515461449118654,-0.011738863363079072,-0.007524641124574338,0.012506099656244956,0.02345830071090823,0.0022230939905841804,0.012312370025833963,0.011236901388837818,0.008364503229176862,0.0049966447834602955,0.002391128059049358,-0.008584107779324184,0.019142497554510633,-0.010286999196084156,0.009825195399499422,0.010695346143408002,0.0009109577405753845,-0.004705375186200856,0.04556089510638568,-0.14242529781388175,0.010579793308536783,0.018318355626859895,0.012030194394038103,-0.005365733204359425,0.0917345906766226,-0.012335436040942496,0.00891233178566448,-0.00863524719366142,0.013560299405946176,-0.03197061729096625,0.024451172472787407,-0.012219751268684551,0.008311040734335353,-0.0002500063958487896,0.02032527033555911,-0.10513787074265644,-0.05028850560308504,-0.030337366609484308,0.04683711361338695
2024-02-21,0.014887671916100501,-0.013062888967975205,0.02908905286163049,-0.029042405702097967,0.0005657128209386559,0.005120368928809749,0.01027154111727478,-0.009420332809233668,0.004457921421623889,0.01658296696498762,-0.004639140652335123,0.003026129550336588,-0.011636941164014699,-0.0069067680161936686,0.012894945613334293,0.02376272860870634,0.002497584115185153,0.012124420517378304,0.011617216604904262,0.00872368914530945,0.0051641044453741335,0.0027851209751464765,-0.008803527581593421,0.019047218642178555,-0.009880222836316923,0.008388061141804636,0.011157207321967367,0.0012937052540175978,-0.00558412097341738,0.04533594586418788,-0.13891741725811738,0.010904651404141484,0.018498571439564473,0.01234697995885666,-0.00398268089102596,0.08706593126032604,-0.012292777250220517,0.00915185987574604,-0.007834366710277292,0.013461474656624605,-0.031300974880782075,0.0244262697378891,-0.01075429746216037,0.008593361428714174,0.0005437365005134597,0.020421652306914964,-0.11559703556713427,-0.04966571138767211,-0.030678389889432087,0.045792197599512335
2024-02-22,0.014807867617930808,-0.012471841416627265,0.029199498715542088,-0.02914037393655539,0.0011083076787151707,0.004082878093282187,0.010418677431223641,-0.009780334910886375,0.0046164232427058655,0.01724868657554229,-0.0043578490309847855,0.004799423276784156,-0.011893295301340104,-0.007208285382421379,0.013177857715285506,0.024008485690396323,0.0024553281365407497,0.012085788891391192,0.011833617717146597,0.00891527606355343,0.004896806096302863,0.0026681227193286732,-0.00943979567157968,0.019061489527457808,-0.0100815412341126,0.005281342928645575,0.011205873045173722,0.001871872347015503,-0.003118820769154364,0.0454421483247015,-0.13982342720018553,0.011115069435995748,0.018638265227470315,0.008371727876044514,-0.0027648426694738193,0.09029373308542563,-0.010891235633389297,0.009221487322490089,-0.007826109839810592,0.013269703178337986,-0.031762070817753126,0.02508855401938211,-0.009827078663132984,0.008761344019184244,0.0007646643743252498,0.020373737256502135,-0.1176271854899562,-0.05014204581573385,-0.0318438662169026,0.044915942370176445
2024-02-23,0.01458928636347305,-0.012846572093636658,0.028809135545446073,-0.029492492146075494,0.0013778848848139057,0.002534489012646898,0.010158267835379058,-0.008558758106809906,0.004500787456477014,0.017428928839638053,-0.00429571293189248,0.006533041889914926,-0.012348226869579983,-0.00748803306688292,0.013004760108995327,0.023897762119076096,0.0020647285235206505,0.011594881015493594,0.011683340944879503,0.008756377793924856,0.004358537840634284,0.0022962006923155152,-0.009763327097378672,0.018533675878721557,-0.010357455065098647,0.003669794395637508,0.011486212815728727,0.001697680891809376,-0.004084975180868726,0.04530481840252748,-0.13819084433934337,0.010892628283931791,0.018198568213184548,0.007754089500075099,-0.002030200569198556,0.09870378137353258,-0.011776061681401809,0.008942628127515449,-0.0077086026460615915,0.012659354805419052,-0.03202395150848119,0.024834356631110336,-0.00899756317517489,0.00852297211638069,0.0005549725664029518,0.019986902837048237,-0.1168927378323077,-0.050464176108819814,-0.03268030958098766,0.04466915229434568
2024-02-26,0.014324583456974753,-0.01309649660669648,0.02818374318353561,-0.02965375244916819,0.001825062893812608,0.0013426913345958448,0.010092460990558712,-0.008404941542878729,0.00451363980778763,0.017696791395657073,-0.004044864654694695,0.007857391771670328,-0.012843649824179838,-0.007645726397242371,0.013087469765893135,0.02388786032040667,0.0019314769398434532,0.01111433065041359,0.011721429883833952,0.00876456139994015,0.0043730665904757994,0.002163043107802674,-0.009518914367622188,0.01812949344426408,-0.010442320078168053,0.001403982464403833,0.015386478622731823,0.0020244635396289784,-0.004186387870534571,0.044847031038178616,-0.13797059389942068,0.010913568028687941,0.018103722789866734,0.0076458618405929055,-0.0008349688539551158,0.10097606570198,-0.011108930701158384,0.008767616386146062,-0.007715484624614665,0.012285998231457049,-0.03225251805470219,0.025136018958462184,-0.008333912882741901,0.008514871742055998,-3.2847536657003794e-05,0.019885305124230337,-0.11815601027720483,-0.05051602490040664,-0.03324165447795332,0.043099918594111386
2024-02-27,0.01454452043475667,-0.013379728618907648,0.028134874418785243,-0.02978206179859156,0.0006882715157695642,8.048829873168456e-05,0.01006538857142543,-0.008180574178652589,0.004575773634728212,0.018032168013857874,-0.003737804722812635,0.009251200908308475,-0.013104588023623147,-0.007595139861520072,0.01296173419876443,0.02381920457760743,0.001766776714994108,0.010828258252051626,0.01179191505448367,0.008823478311410995,0.003967480529678192,0.0021389260179439807,-0.009713607929130817,0.017687074856499764,-0.010604928849995502,-0.0007909430616902962,0.015302826614225742,0.001988328054632807,-0.004806651426005055,0.044525595780197595,-0.13528955714685706,0.010931677666476123,0.017991546879919947,0.007634924847159687,0.0005884014812273507,0.10338383058598338,-0.011632670033034706,0.008736227200372966,-0.007743494905965324,0.011872095618099227,-0.03264656511316862,0.02574660980598539,-0.007649119916117913,0.008528239216569816,-0.0003263459352682306,0.02053948642392806,-0.1189384344251512,-0.050535841016730275,-0.03354194303677728,0.04307267551542451
2024-02-28,0.01432657576878772,-0.013070017224448277,0.02802557322881828,-0.02896174866290903,0.0011915221154885148,-0.011085419853256525,0.010199192822883766,-0.00731791992409126,0.004858871957820945,0.0182375487806586,-0.001940312674655238,0.010699043022322769,-0.012769907985885292,-0.007211742970615849,0.012988247725894946,0.02386888939968839,0.0019179819777418894,0.0072868426605174445,0.01197214701115728,0.0090393523798478,0.004056017486987139,0.0022290963148941826,-0.00907880597774394,0.017251398555481797,-0.01029887972775936,-0.003394810253743765,0.015254753400697442,0.0024768103209359743,-0.004704923404643602,0.04372045006999036,-0.13070514889847373,0.011088884698735918,0.018141525614006865,0.007977405378099758,0.0018535525640659537,0.10452377889854823,-0.010933347867718284,0.008815505260630732,-0.006862552907557107,0.011711295575343762,-0.03435706181318197,0.026023118264694004,-0.006454736452957077,0.008728411177017151,-5.923527677946932e-05,0.01918173821158995,-0.11885478494828536,-0.049212939427099194,-0.032725703748195695,0.04235446935665239
2024-02-29,0.014089774209712028,-0.013178515056149904,0.0279334759952249,-0.02864217576967149,0.001432113010712788,-0.011442406658890491,0.010160346915591641,-0.0065808386239128505,0.004949064747461478,0.018394363279776095,-0.0008866068933346976,0.011582066192429817,-0.012975180684450482,-0.00730294175538183,0.012880250970709274,0.02372894825957357,0.0017950798144207535,0.007234446469141577,0.011924544578524798,0.009082347040179397,0.003909547528154415,0.0019883917161898873,-0.009030368814956011,0.01666017333831417,-0.010496336830469901,-0.006217227706094329,0.014880005022995342,0.0025237151721389925,-0.005360650029608026,0.0444551484568884,-0.12926680220088324,0.01109462434235144,0.018034559679405933,0.008047028152908378,0.002520341793941567,0.1057610084835873,-0.011080695123367729,0.008759293723369347,-0.006922666401741357,0.011399456659373605,-0.03428437022906364,0.02652797142042202,-0.005733749259362172,0.00872703521615807,-0.00027113406714235686,0.01907777942753412,-0.11907033766347652,-0.04878195036907256,-0.03247504586297034,0.040447098382808785
2024-03-01,0.013794235871303486,-0.013706397067043553,0.027974033981538204,-0.02882560185778167,0.001419017784907225,-0.01223670655560297,0.009980182709237926,-0.006112808540672646,0.004798242096842743,0.01754416901401414,0.0010909759490538103,0.012453741366230623,-0.013501153945469038,-0.0077880802216702206,0.012635862623033315,0.023669771367298767,0.0014671767911701207,0.007238707916023328,0.011743973154576632,0.00782926734481679,0.0033121416103903613,0.0026817792299481673,-0.008974428463759855,0.015721730298796206,-0.01088879883853272,-0.00928044427360638,0.014646998343528832,0.0024865262669927332,-0.006286995767576313,0.04813672970644899,-0.12818515401106673,0.010962721446589769,0.017982196415618514,0.008059563582266527,0.002995998089590596,0.10709071531447567,-0.011563271185893995,0.009101126677279452,-0.007473544896524278,0.010957188610542982,-0.034703282421293724,0.026764501989330388,-0.005434319649021199,0.008572154795476551,2.0129201262992068e-05,0.018458188750063397,-0.12127654213110028,-0.048871551121932616,-0.02489091905145178,0.038410251701350734
2024-03-04,0.013621068205170212,-0.013845420606449749,0.02819582581173592,-0.028603716975176368,0.0016942282446010737,-0.012260624348203372,0.009988320396512946,-0.005107494722351205,0.004887228016687043,0.017556269648012608,0.0005278562092334812,0.013447947616812447,-0.01356573363757591,-0.008068763607039925,0.01258458822198025,0.023705476322748734,0.0028041531736805237,0.007211989391805195,0.011506821889026228,0.008433285625972094,0.003048908059899587,0.002630729323947511,-0.008718916224791666,0.014855974219312673,-0.011037672504631833,-0.01095832658836356,0.014545579673510469,0.0024349014044215953,-0.006308325299433028,0.047932750443006746,-0.1261884192940777,0.010998443134241958,0.017927033429556424,0.007936789423199545,0.0031196479251701425,0.10768867194524934,-0.011590908779503526,0.008527895793834773,-0.007555657197358523,0.010702360682715028,-0.03461637748121171,0.027462190881655378,-0.005211365584714411,0.008582793431352527,0.0006811592475992474,0.017775613103759955,-0.12276594060230211,-0.048691853927108134,-0.024904482619707253,0.03698349910358842
2024-03-05,0.013594236458154144,-0.014306262884141958,0.02885805172661583,-0.02912918133351485,0.0019065143313586224,-0.012581357057025193,0.0100696635993615,-0.0039023169147389073,0.005004461647645561,0.017796197060376794,0.00016672352586096864,0.014395869528904863,-0.014066074497454248,-0.007835568601759383,0.012646785873931454,0.024104928055877536,0.002429683779529564,0.007384502828772637,0.01128387911640802,0.00854983627230146,0.0025431364427317697,0.0025177782391096206,-0.008651755727465873,0.013563124956768341,-0.011479835034065227,-0.013464667572515418,0.014538917360810321,0.0025238593748274727,-0.006388490071600366,0.0444649499969632,-0.1230348457920347,0.011133240223128076,0.018284588792621546,0.007890211477082116,0.004018760439897461,0.10903461734597529,-0.012626709246457523,0.008554447245491236,-0.00646118383185482,0.010506056427801853,-0.03485554375487786,0.028388050602481875,-0.004755165752609969,0.008725207136887306,0.0010771263170894657,0.017673604999074697,-0.12239077008880962,-0.048936589496802935,-0.02513368234227103,0.03637098881615942
2024-03-06,0.013446554755982401,-0.014408757589330691,0.029432764727277374,-0.02951031843405721,0.0017391622646708172,-0.005963504773250851,0.010063015226012455,-0.002959688289029719,0.004965582650925684,0.01789728975454929,0.0005064801624296304,0.015176995345266045,-0.014573155769819523,-0.00848936863291438,0.01264510490838864,0.024480894183834354,0.0021944239852894998,0.006796511361141598,0.010974896380118818,0.008548167140176121,0.0017885432065683044,0.0023288614490620907,-0.00867809661903468,0.011395878030184929,-0.011971661355166389,-0.01265440280884113,0.014488995570240823,0.0021969532427403332,-0.007102051031542413,0.04411751326838592,-0.12317961333472771,0.011144657158161637,0.018468299762173974,0.007794862736077876,0.004693560046289402,0.11407881481535864,-0.012784129727959883,0.008537564678323839,-0.007492626747672836,0.010151853332237466,-0.03562729344962395,0.029327504739705225,-0.004814718918471519,0.008758825119956666,0.001034518564920651,0.016658533037607143,-0.12522408828764667,-0.04940128167479367,-0.025165242556116883,0.0341664183959424
2024-03-07,0.014022534047191176,-0.013636016212242079,0.030586411852213544,-0.02886752024132855,0.0027275061811622226,-0.011810750452403384,0.010816560049427326,-0.0013004135370889463,0.00564845128604894,0.018842769772549887,0.0022132732056898675,0.016577711154096893,-0.014080940719081003,-0.008025904790216467,0.013353322653784718,0.0251432201871545,0.002511606175822241,0.007493923117352586,0.011675736910718564,0.009376723509069278,0.001593799209747705,0.002927398532857526,-0.008081194821511895,0.010690868791218906,-0.011374145317917089,-0.013477104247091703,0.015183232793520247,0.0030703862367689066,-0.006839368452441981,0.04428762584608088,-0.12301266634509223,0.011928987957548473,0.015711419097736976,0.008553503882934054,0.005547459688406316,0.10378482675984288,-0.013103096118998358,0.009282805627519928,-0.007483946832926763,0.004173875018994611,-0.03546523590210917,0.0312530699799195,-0.004481349957550189,0.00954328179334811,0.0017315912810587143,0.016236738065686544,-0.125576129114149,-0.04839606512940224,-0.024988151808448864,0.03350937933452793
2024-03-08,0.013779897861082397,-0.013679622008591569,0.030962382605132954,-0.029358713326513346,0.0027111600542092935,-0.01234250912622053,0.01075944114217808,-0.0005948746146382833,0.005564347264425395,0.018628359643355442,0.0027536632001814686,0.017114334236252707,-0.014474853932461453,-0.008285166021448857,0.013250562780142245,0.02531205780309157,0.002053661976765835,0.007182735877534872,0.01141015019327348,0.00931667046686404,0.0007724022344718522,0.0027099538588685216,-0.007887821957167624,0.007367138099059853,-0.011703549523823386,-0.014975539952816442,0.014954919092760819,0.003206242492592194,-0.007226933676908006,0.04377358108844253,-0.11971162229201578,0.011943612332661618,0.01571346655216206,0.008330747305880116,0.005817324223771369,0.1156160286747905,-0.01387118935225287,0.009218651055410167,-0.007294113090517708,0.0035557046525207386,-0.035306493914929724,0.03173432692994347,-0.00436914302324931,0.009489508584687915,0.0023173839467037385,0.015575463350532908,-0.12635698373214746,-0.04799323383422612,-0.024567636620071543,0.027104120420249754
2024-03-11,0.013552810129013144,-0.014505016833593447,0.031652613575545586,-0.030992426531360265,0.0024447266779393296,-0.01347043521133624,0.010611397468658907,-0.0003395456834039478,0.005244920839515759,0.019029289364361136,0.0038625956702328474,0.017847185371877006,-0.015417453326966412,-0.009278819793229287,0.013162690885545203,0.02569098779842064,0.0012795030183446502,0.006396498485504422,0.011271220935914391,0.009134108438746418,-0.0006236043860726554,0.00216806734367486,-0.008469132211116078,0.00514788613984129,-0.012616327771045554,-0.01717584899382343,0.014765897201222958,0.003129720238832829,-0.008093623821875279,0.043182547256154113,-0.12209717656395604,0.011804206287031724,0.01587191803450004,0.008009188401540215,0.005629105728188982,0.11413414587516209,-0.013813878213798307,0.009025818400279443,-0.008556002407532787,0.002619249831115307,-0.037054469528427426,0.033218820470779294,-0.004991593981874644,0.00927023469714088,0.001979794386699124,0.014505071555711884,-0.10856564834345567,-0.04956049016837357,-0.02437850622875894,0.034357779492505396
2024-03-12,0.013601929519976049,-0.013421539081913235,0.031506656031672874,-0.029394328564364646,0.0040447733543286886,-0.012095838600628779,0.010969735359429323,0.001156721326289134,0.005789391605671293,0.018405530001178942,0.004761776157123787,0.01832346520656266,-0.014301058293496574,-0.008421524645118358,0.013375802525382391,0.0254647123196311,0.0016245902578567,0.00644956714824221,0.011033152187494061,0.009216323404175712,-0.0008573038112540136,0.0027094710651538994,-0.00724001719171705,0.004370795310696222,-0.01168768756314738,-0.01659279889262236,0.014749095087803733,0.004310909435626089,-0.007451129290920954,0.04199019297309198,-0.11761034499695248,0.012156971373671067,0.01615290649614097,0.00849330720992502,0.006852959644181549,0.11647511192741654,-0.013257487376355279,0.009396747222282543,-0.008013332154961377,0.0034478931202195063,-0.035179322829238475,0.033710807323724605,-0.015807349164786485,0.009703133993006163,0.0024060344170392777,0.01404472440772873,-0.12000862164564706,-0.04643205984052863,-0.022228256056346905,0.023304812587277117
2024-03-13,0.013630110210369714,-0.013588266308595763,0.03151546905158154,-0.029823620242669897,0.0038228261425939454,-0.012379861776671712,0.011187295366323204,0.0017536491353985178,0.00606374951389099,0.013240761566525547,0.005865441051765514,0.018833025523142637,-0.014392954344177554,-0.008489453059365538,0.013606137747181248,0.025729316585169294,0.001531351618745231,0.006082539451601961,0.010923290459528183,0.009528183092113118,-0.001901569821757487,0.0026951255859302336,-0.00686136260052646,0.003115921008216768,-0.01183938905085654,-0.01715384632103002,0.01478764941516191,0.005149582770290763,-0.007995249496500621,0.04461049850335595,-0.11505380111116506,0.012454882592112188,0.016646369348808407,0.008662050603715126,0.007254835213213312,0.1160234924235333,-0.013550701681657742,0.009607854575315664,-0.00789881275543339,0.0028531554957069325,-0.03486888185034426,0.03495135645430662,-0.01555951202023859,0.009885118745616197,0.002236408008676547,0.013559435147553292,-0.12058241532589653,-0.04640200637473437,-0.021658295858378553,0.022193117592556284
2024-03-14,0.013522552712192874,-0.013662885696739164,0.031980153522297126,-0.03015244149737984,0.0036497120715924315,-0.011974737270268177,0.01128923289844999,0.003009382252554345,0.006186596825981066,0.01335996784075044,0.005062120882169904,0.019050487163976698,-0.014512199157224587,-0.008325168746073433,0.01369349581158227,0.025710836949826968,0.0013764060104221843,0.005938211334560394,0.011054094546703802,0.009653201639603043,-0.002866066842306836,0.002630420460527291,-0.0060006727600506495,0.0026474761694057166,-0.011670884553453305,-0.020051872554399445,0.014414840101015264,0.006317073582739692,-0.007091636725900942,0.04261592918542451,-0.11354839748119924,0.012882572702518608,0.0168621656043103,0.00893159668474257,0.008341945416957958,0.1157244912295636,-0.012370507506813065,0.010148850259551779,-0.008017891229045313,0.002262466779478334,-0.03458817392878052,0.0360208873938033,-0.015523634822392515,0.01004354741257822,0.002367110852380326,0.013729716649906111,-0.12174096913537386,-0.045965686045470334,-0.02193617404712891,0.019522457052432943
2024-03-15,0.01357756285658779,-0.013716624020387756,0.03259160443395395,-0.030956741381869875,0.0034560489539443846,-0.013139874796500249,0.011528520054967297,0.002305122467110721,0.00650194196298569,0.013017301783844987,0.0053224268702372745,0.019191571179015116,-0.014740374596452176,-0.008194357869919098,0.013964985490873648,0.025838174315029428,0.0013452278895190225,0.005717369394789841,0.009871018381287103,0.00988893238322572,-0.0035214049519390637,0.0026401801486085064,-0.005091331494099826,0.002411652230402164,-0.011827032143407619,-0.020325345222692623,0.016737306223906345,0.007307081750230456,-0.007472558257892818,0.03978259411033041,-0.1091617827691494,0.012988265801376637,0.020173153281499823,0.00914741705166789,0.009170150367843534,0.11621336045636588,-0.012990797425956331,0.010370997611989638,-0.00801215159761176,0.0018255066887371985,-0.03459549389498921,0.037091327621424586,-0.015273164440947541,0.010318918663208236,0.002899401595785622,0.014593500703084598,-0.12308179419902376,-0.04554729331777612,-0.02235187761938489,0.012211377276166498
2024-03-18,0.013828482952221628,-0.013735618783926146,0.03342412860282673,-0.031667580569105194,0.003908676959225233,-0.013967844065576322,0.011910101582746966,0.002937367844457662,0.00683346999135436,0.012705966463072772,0.006637317880018619,0.019256197694278915,-0.014777912802913252,-0.008074882769120006,0.01438592736765992,0.026054152702530944,0.0013529066038362623,0.0057033557987181864,0.010006342862582547,0.011307618207648874,-0.004234004851075443,0.0027757992322051477,-0.0039266787847436506,0.002319903640329469,-0.011848511309829585,-0.02050673799961551,0.017075046283886293,0.008787409676548957,-0.007173759374919388,0.038314257141741005,-0.10944566389930113,0.013194712790186722,0.018114911788437753,0.00969147697696246,0.010223271595504178,0.11642726907639159,-0.012413764620765405,0.010738747473125879,-0.007920700387120453,0.0014386516326457782,-0.034583831842825555,0.038360823661132595,-0.014783603344612649,0.010738983435275715,0.0029950528315917224,0.015151460359434831,-0.12492714893709723,-0.04533740263165602,-0.020674353025797197,0.0034002088914203052
2024-03-19,0.013851458826957094,-0.013774570531340452,0.03361611995015581,-0.031726507751753855,0.003884583145569123,-0.013567806523709786,0.012095080307344136,0.003543885371259252,0.0070711256647408745,0.011887665865494062,0.008017599835571976,0.01895245620630103,-0.014557862430686451,-0.007887546867593635,0.014570225288288443,0.02569265233504548,0.0014159504871840234,0.005183917149939021,0.010117124610820729,0.011515375436465688,-0.004627896788114746,0.0029108776335208444,-0.0027085904179337344,0.002275369142820845,-0.011527104735181499,-0.02024533502416656,0.01715717932780559,0.010409648528265592,-0.0068695030424802276,0.03650101578427259,-0.10569045070640254,0.013144711511869142,0.018634206414575326,0.009883344126842601,0.011280666746003283,0.11619059031119344,-0.012291132625742985,0.010929960272041517,-0.007407190735744418,0.0011518797484604704,-0.03392075082685281,0.038859110783997994,-0.015468504321276638,0.010945849337446835,0.003037680773988225,0.015272689075758995,-0.12443328400993098,-0.04403336716057993,-0.019517395164071187,-0.009745200336437677
2024-03-20,0.013856364518665055,-0.011720442617544614,0.03244887263333587,-0.02871112811777954,0.004620926759360991,-0.012293526293570146,0.012394333961395628,0.00469622636227532,0.007783343599377797,0.011463392804914685,0.009795729792501909,0.01797748818618503,-0.012345702658493097,-0.006133408987942339,0.014681351410595568,0.024420926080075404,0.0023121559923359298,0.005461708227308787,0.010488471046797388,0.011920714281339524,-0.0037984316039343354,0.003776117214083742,-0.0007173455953194043,0.0030104631714702574,-0.009684415972711134,-0.017591325979474947,0.016960112406557207,0.012099415374052408,-0.0076076731724313935,0.034856788936668416,-0.13593452439326933,0.013154411834321549,0.0202578631179303,0.010314513484646766,0.012192876976122775,0.10848032869149146,-0.010041295534378204,0.011302934471977211,-0.00833271806800809,0.0017193972960364771,-0.030190203598887085,0.03751192808146817,-0.012292059121876208,0.011404887209451662,0.0038404803722067544,0.014795475705049908,-0.11488523044028025,-0.038891181622287406,-0.016354383313093655,-0.022475002908718865
2024-03-21,0.013902929517469109,-0.011580064118296427,0.032691312269076046,-0.028580394462471074,0.004811121023216021,-0.0077053705704191655,0.012667174578239276,0.005189824524680382,0.007984347437863184,0.011165157979663535,0.011574119118743783,0.01730716305216405,-0.012801055263834817,-0.005926176907977466,0.014929985455618992,0.024461519496168406,0.0023666337840550942,0.0052653923092092205,0.010733621166537867,0.012179712256001753,-0.004329249843512523,0.0039899966993106285,0.00037661123400350153,0.003069984700337239,-0.012302705754529745,-0.017294802392043868,0.01704975219386247,0.013029679712754351,-0.00713500427864022,0.03311434231863386,-0.13316924140877678,0.013200393713385829,0.020279650718854892,0.010521287328744579,0.009080609918728706,0.10794958285014927,-0.01024927783541227,0.011564240084206291,-0.008258195681264653,0.0014971777082450797,-0.03007118149499132,0.037640517225177826,-0.011170692513922527,0.011696434519883338,0.0040115330254511,0.014698192079564175,-0.11483604077848261,-0.03758116537125736,-0.015155611276938354,-0.03185377004722878
2024-03-22,0.013666424898094914,-0.011289911212227667,0.0329337482111428,-0.029011093205196285,0.004942379925968956,-0.008426748392898139,0.012830848688632627,0.005410223124875793,0.008247421218162628,0.01048765873565961,0.013446547636164855,0.016224031350605125,-0.013319818655151566,-0.005862122476021074,0.01508200065845412,0.024209170926095053,0.00224093525274174,0.004733230100418653,0.010860497895059443,0.012321905120480465,-0.004620620559538874,0.003972231459644189,0.0017830527842475868,0.0028513856925580384,-0.012534899079098362,-0.017266549373990442,0.017114610653898882,0.014228401668826914,-0.006893197076194161,0.031762972065752355,-0.1318373462961709,0.013164041020329068,0.020316126143860545,0.01075802354462945,0.013719710831023923,0.10040948512750253,-0.009777590075240868,0.011682791598690477,-0.008474852911602077,0.001156369682847449,-0.02915317936273424,0.03815331821304174,-0.010176989328655106,0.011853321502858923,0.003937659708042681,0.01549947455968838,-0.11555581931937871,-0.03643334623988114,-0.014371031197229682,-0.03499488523879071
2024-03-25,0.013564937452363266,-0.012981733889740544,0.03404802669647695,-0.03223774050408321,0.0038346921125431955,-0.010578512422189993,0.012868686593923066,0.004934889447360572,0.008026125300359654,0.008282179874347541,0.01489577001891509,0.014960112088031698,-0.015456932887420474,-0.00697340262399753,0.015238918093637545,0.024717736625688973,0.001372956639576768,0.003675188760326312,0.010796681579099148,0.012265255629971541,-0.006213343894789932,0.0033042895432003573,0.002282289191174448,0.001927431903663474,-0.014316764020646987,-0.019067346721791802,0.01728487363426637,0.015390540490759719,-0.008261367006718779,0.02817934358857034,-0.10329250018749955,0.013024659753625795,0.02064136091570208,0.010576909656232304,0.014329450449952272,0.10611913506319119,-0.010384630390028467,0.011594381589797026,-0.01018473750204584,0.0016415952946621953,-0.031423763249542845,0.04001888877180542,-0.0005812497543537164,0.011773335546396958,0.003169934436693649,0.015259423257684944,-0.12378668199388139,-0.03879507315294888,-0.014454294829192457,-0.04100992496912754
2024-03-26,0.014289922753328408,-0.013073854384363936,0.0336605161521935,-0.03271852506546426,0.0036504036967687035,-0.011585846053536443,0.012696916559736687,0.004952541449932201,0.007959137896595492,0.007455437501536934,0.01629108578764302,0.01304201039970152,-0.016078307238083497,-0.007066842715610943,0.015046248825037753,0.02441620940191674,0.000996986986968578,0.0028485162576452738,0.01067523460886103,0.012006978893434404,-0.0068343383017448744,0.003004260646281401,0.003152402062700648,0.0015281853120107842,-0.014593998489643342,-0.019144646709302618,0.01688492345194374,0.015895481914253815,-0.008709281004753596,0.02925203899458932,-0.10226738695329265,0.012742228252508706,0.02021628590189061,0.010479726476494247,0.014694717656854565,0.10945750681714224,-0.009733496541465936,0.011401269219103437,-0.010739525249888847,0.0010126538573057564,-0.031038106995689,0.039665847979303386,0.0005339115777398235,0.011627549332073295,0.002787970866249375,0.01567489251025462,-0.12401081173212365,-0.038337129308880905,-0.012389505082218833,-0.04167839817393666
2024-03-27,0.01441894511735688,-0.01308220821612756,0.032404191155804785,-0.03269343837164921,0.0037381706271720863,-0.012137569012015799,0.012953533694169192,0.005162920246852311,0.008365301972597992,0.007238417084512452,0.017147378715266448,0.011040263858820338,-0.015950214012100516,-0.0067123610365022604,0.01654182637113789,0.023950976184264162,0.000823734153006988,0.002670074651326502,0.011341801336633437,0.012233718059322647,-0.006848296912565934,0.003265809768290351,0.004584533950865759,0.001685315260988461,-0.014487215885369545,-0.018818965353541606,0.017934472048815785,0.016455651397384734,-0.007343239804139743,0.02742809579419877,-0.09702434432682433,0.012962622577081114,0.020204743060372937,0.010582663753391749,0.013170306151647507,0.10960573105401111,-0.00956594446144929,0.011659596582004448,-0.010706420681445795,-0.00048183086630697075,-0.0398400669266213,0.03935736301681364,0.0008250426344969489,0.011852497623318754,0.002899550937966943,0.01549475116010689,-0.12413093836221255,-0.036951327221499,-0.011243434585326803,-0.04198218396430181
2024-03-28,0.014141152994851532,-0.013034556096454854,0.032656417549800955,-0.0331921520359239,0.0036555421605685787,-0.013097307268984571,0.013154162246271885,0.005218308744287378,0.008676797373150906,0.007047488649975263,0.014900940368560106,0.00928641431318312,-0.016285177100994024,-0.006614261021513535,0.01659086091810856,0.023989944647071076,0.0006923329115237405,0.0023553662039100106,0.011556005655671905,0.012321026987826255,-0.007005837168578086,0.003259575350732297,0.005313000587331407,0.0021240321101490874,-0.014777975219500528,-0.018765309333833847,0.01777664963215117,0.016371436316158155,-0.008532763750845652,0.02649273148164966,-0.09581154501111211,0.01311898557174407,0.020166011624671763,0.009725461142388937,0.01433557026278326,0.11108054233919032,-0.00774330322843909,0.011822988464457306,-0.010967717950632058,0.00068869655367034,-0.03998734477892271,0.03921959029348514,0.0021357473093350445,0.0120538676416851,0.0027598942555263455,0.015312457338129309,-0.12490018429907293,-0.035991387260241835,-0.009835464096626365,-0.04345771437832371
2024-04-01,0.014262431428411135,-0.013437849952038537,0.034054317885560625,-0.03474179069330918,0.0036747121217339355,-0.014700284633733015,0.01334891571884761,0.0051248542574959645,0.008901331341561184,0.0056283303384891915,0.011824326143735821,0.007952926334430552,-0.01772195619520765,-0.0069640781056815836,0.01659445662487817,0.02416228069867908,0.0005946659118153495,0.002107327958898515,0.011750409658436645,0.012411906814701555,-0.007338387278649076,0.003046669240362772,0.006771210178424116,0.0019400478760472893,-0.015640562555544132,-0.019259928460736996,0.0178235071444724,0.015733421002264606,-0.009856394615373734,0.02544928619754372,-0.09587674561101493,0.012092485251444659,0.020301927448359763,0.01087911882034366,0.015282593394996026,0.11581824815721671,-0.0077157794766566515,0.011981762793987783,-0.011908365465013174,0.00013128892158092469,-0.04099832427288187,0.03939374709246181,0.002597886774885897,0.010991644639368001,0.002411286131324646,0.014960675697239915,-0.12804665210015528,-0.037070050871022615,-0.00870408644920715,-0.030018763263774385
2024-04-02,0.014548187468316884,-0.013255031416822953,0.03506385024151914,-0.03562528835742838,0.0037070873945983817,-0.015907909835697648,0.013557641906611208,0.005272740348666375,0.009179334021126475,0.0056574462664548035,0.010468982735893896,0.0062757775107443944,-0.018337354781193516,-0.0069551127072653525,0.01611810240836257,0.024015467792526408,5.526860690035332e-05,0.002118725389740041,0.011998985400751463,0.012646275154555183,-0.0074919900785912225,0.002998801518760167,0.00805015577203383,0.001834129757167284,-0.015840227021310986,-0.01909606907912815,0.017725591698809173,0.014652692633374258,-0.012952621602453671,0.02451979097867012,-0.0917472192911758,0.012378032539838726,0.020251737324902146,0.011060133893150194,0.017174240198987018,0.11914209610855546,-0.005736657960512904,0.012183572690751803,-0.012400462916317542,-0.0014148872597642432,-0.041367852477496886,0.035837211937041334,0.0031372570966343404,0.011451303834583143,0.0022085668876758416,0.01471081248229781,-0.12801098072105624,-0.03632164860710893,-0.006012204985593909,-0.03152648090108169
2024-04-03,0.014880615968320696,-0.012955946992309899,0.035631983533817954,-0.03582222541307503,0.0036390666854867228,-0.017050614525916576,0.01338969761723233,0.005342904205149895,0.0089131417907185,0.00530969685909139,0.008843187762664474,0.004512925981031073,-0.018915635379368183,-0.007286687634374711,0.014911896398993058,0.02385988442908873,-0.0002814042864755472,0.00178150563385316,0.011865246464538551,0.012432461960438233,-0.007587105027811676,0.0027386734442053965,0.008462955273408184,0.0015331262050046566,-0.016015733926355635,-0.01860775459948586,0.017184002614642205,0.012222417295246273,-0.014530794059177479,0.02291231157212571,-0.08890326724931234,0.012265638418027091,0.019699804708436554,0.010812540909132558,0.017081113510351912,0.13208001264026445,-0.004955325823173581,0.012030178952707133,-0.009575772468617638,-0.0005135561354521281,-0.0412646760171269,0.03456233590627314,0.0034204988225838414,0.011391780370042005,0.0017779603179209397,0.014510433749203319,-0.12830309812070598,-0.03505225688873056,-0.009548565605515867,-0.03282957984701436
2024-04-04,0.014679537389006084,-0.01317456336247393,0.03655608005078474,-0.03693550066467391,0.003617535214129523,-0.018652395526002327,0.013329873531551071,0.004072316940244292,0.008799940390418391,0.00681887471775325,0.008628512211122336,0.0036733339848491163,-0.01839047918896326,-0.0072676868285048305,0.01472988838380818,0.023104234690483002,-0.0007593732524149319,0.0017652968280703215,0.0118273553115496,0.012402379191367916,-0.007596647687088651,0.002385568128206189,0.009815257480246963,0.0012046948175551166,-0.016561494314852078,-0.018356703603304002,0.01671466871684109,0.009929586735019758,-0.014233656272415515,0.02143025102893461,-0.08486572075810207,0.013497714168041058,0.019367145149463978,0.010864993456435294,0.01780456255659706,0.13609480712585528,-0.003995680123271752,0.01196229513107277,-0.009455963957552452,-0.00213722434288421,-0.04188976454627661,0.033459576796335204,0.004020442063881293,0.011509589026704415,0.00160612689264526,0.014327561891026876,-0.1276143915366792,-0.03392139872162662,-0.009436371273143554,-0.03475498403977018
2024-04-05,0.014636263533593142,-0.01224574152612294,0.03668510061196525,-0.036270958050659094,0.0037270646461122917,-0.019006877105479193,0.013291170397364683,0.004755940832544938,0.009066830311754237,0.006807789149437205,0.008058779192491563,0.0016641785156288717,-0.01800643436937239,-0.007261999241289813,0.014570711853859275,0.022701053779895126,-0.0006660952606942071,0.0020955947956116795,0.012639610357979518,0.012430158192024842,-0.007331947572191493,0.0024690450625491295,0.010924064871914612,0.0031310343454725056,-0.015927065302509143,-0.01747751669146738,0.016272721826882722,0.00728526413282983,-0.014740056274958982,0.021883314309691853,-0.08292132282805499,0.013538563917336006,0.018924740794949043,0.01094767471891143,0.01836258467500881,0.13479129025099007,-0.018499490062520295,0.011961570328099124,-0.009459714502004933,-0.0018210987797878011,-0.04031269673965717,0.032201327440164455,0.0062374026195002675,0.01224040607622768,0.0015928239490218706,0.014105924510188052,-0.12374836471703912,-0.030756146025364566,-0.008723366250303418,-0.03482310870052317
2024-04-08,0.014886377232944963,-0.01202733303941966,0.03835321305485579,-0.03658919900703964,0.0038910082230860263,-0.01978563554518064,0.013514345302635306,0.006177990210813343,0.009451102544960593,0.005687198689209224,0.00821424211615213,-0.0004643045015511085,-0.018199556427748242,-0.007193190455012425,0.014744731893928196,0.022504709154634057,-0.0007657337741578635,0.0024602196839065165,0.012663888384986515,0.01263628192260027,-0.00688854617860409,0.0025267538061951376,0.01248158480159566,0.0033281888187327866,-0.015940161127611274,-0.017219430140190617,0.016170312914785476,0.015642632991030712,-0.015552093094096046,0.021827697295032134,-0.07935665815656075,0.013818332331144899,0.018875444400805963,0.009430459318545728,0.011585955510629476,0.12291393362936356,-0.016743373252592435,0.01219680719423545,-0.009736667399816927,-0.001767569296652288,-0.03993511804711987,0.03660214749575314,0.0088767577090865,0.012625895816027927,0.001463077592552539,0.014448709959769808,-0.12167660370123169,-0.028689122685034065,-0.008170230601359938,-0.04329947356902047
2024-04-09,0.015073863058659622,-0.012772915352620108,0.03971198696193463,-0.03852714444719084,0.0039591512012377575,-0.02168138077204276,0.013624552952668982,0.00869290683279581,0.009763057925343105,0.005698489899595911,0.0077771831134898686,-0.0034445579869308357,-0.019495289963232867,-0.008235097914503898,0.014857189293998093,0.022284110875701313,-0.0014183178873227857,0.002282822315858463,0.012630521698252165,0.012667016058845026,-0.00757874283109966,0.0021364441036903093,0.013758456519948165,0.0030791501083353456,-0.016881092787299837,-0.018043624524350734,0.015857225535976485,0.014370627474025085,-0.01804276169172225,0.02186610963139708,-0.0800183976608421,0.014023068978288407,0.018830949840810338,0.011581655241814584,0.003528679887611329,0.12245273957219989,-0.015991439994320327,0.012280472666099674,-0.010862005926516006,-0.00222958343591688,-0.041137866102207134,0.03680955920284547,0.012547930496148395,0.012381911598790946,0.0008345500966275256,0.014637616857010129,-0.12367715292157226,-0.007197492566310428,-0.007542570124658838,-0.045222565109339495
2024-04-10,0.01541100907126462,-0.012771980449574684,0.04073319880383598,-0.0398365956639796,0.004258043167599777,-0.02308327423294395,0.01391277996347767,0.009719485479774172,0.010553934644664191,0.006587604560682163,0.008017305692283006,-0.005621327442574097,-0.020196353283282228,-0.00826269965614218,0.01625644155743745,0.022841262883709912,-0.001705042166652635,0.002500521334363605,0.012765436778757086,0.012962411124465245,-0.0073481305003999684,0.00199352134500648,0.015397789059562858,0.0031669572757085395,-0.01723097035711138,-0.01787582458101577,0.01585752010599689,0.014185958915836011,-0.017457188783769135,0.022879163596472817,-0.07683003088851657,0.01430200698480007,0.01892621418407803,0.012112670217228469,-0.0022046573729774064,0.10762454685535043,-0.014552463375997433,0.012557450553762445,-0.010592675231554905,-0.0023157008472666197,-0.04135658406023335,0.03820281255070416,0.017188954654018627,0.013523512185111745,0.0004424744858141007,0.015119011968233556,-0.12259922096650683,-0.005400481414816021,-0.007392948776712009,-0.04536584994797331
2024-04-11,0.0153027851971868,-0.010361656450409372,0.03859558085765446,-0.0350418902395621,0.005395075857384735,-0.020544606421409685,0.013935840712881377,0.010294376444252936,0.011261814198467692,0.007387813759582922,0.008424532392123726,-0.006391276349208743,-0.017163567294277062,-0.0064172136765151535,0.01604205515172534,0.021865225212013537,-0.0004770323734794171,0.003716701628618264,0.012830993206651483,0.013056528956193969,-0.013160392881555566,0.003023653226857587,0.016241788163485295,0.004227839889739268,-0.014264797580293899,-0.014937796791486881,0.0153543065525272,0.013378727969354184,-0.014812263510507611,0.022333116602721796,-0.06558612865604754,0.014315320969705612,0.01971139610728063,0.012538026311418687,-0.0059701808958621495,0.12175824260609866,-0.011268220433895956,0.012745382974833493,-0.00918209410916943,-0.0008379681953740393,-0.035606806933881956,0.03601544140315474,-0.021153404562037657,0.013781150549343604,0.0013437494823091158,0.015122533616432841,-0.1489281747345584,-0.001849448877393424,-0.005016315159306942,-0.04102876387376689
2024-04-12,0.015036778425788367,-0.009187098491265106,0.03730475973357217,-0.03331785970512861,0.005640104669289648,-0.02002725934627939,0.01369745949873492,0.008102248569162158,0.012015317074443182,0.007533048698640486,0.008600875865890057,-0.0071314051298590996,-0.016137475273084564,-0.011711336551093177,0.015670327202152844,0.020985871520240895,-0.00024549790814323396,0.004096850514726827,0.012568232193419829,0.012954681440240975,-0.00959329310413844,0.0031386934894283283,0.01723234173670316,0.004452472121062978,-0.012987332008033552,-0.013020015347490274,0.014774341777357291,0.012392589801648986,-0.013285739513010658,0.01535551663765687,-0.09514920799381751,0.0140917258581132,0.01898769141470884,0.012604625061463922,-0.00806611930753631,0.13418699084021776,-0.008109765252298567,0.012578340437275825,-0.007689939814185777,-0.0004101498344004887,-0.03235976957700522,0.035250616615614745,-0.018585794548873352,0.013746047708784367,0.0013021312539500454,0.015253414354216068,-0.13999965240130746,0.0004459054854953454,-0.004110786131573331,-0.03887450276147578
2024-04-15,0.01487221701097032,-0.008628298182214476,0.038274767347399714,-0.036002540141512135,0.005365205998987163,-0.02004089396256144,0.01348379535087212,0.008151903813528167,0.012403680426651758,0.00703412733671705,0.008382312020395462,-0.009901531087154315,-0.017831699247615438,-0.013553084980588761,0.015485770169090373,0.020667724808121207,-0.0012539441340357004,0.0036863957090477535,0.012210567191437292,0.012801977864935445,-0.01126947294829133,0.002381115332965459,0.01828108676177138,0.003891759130923453,-0.014137608547475906,-0.01342270101590191,0.014124127716760687,0.012318009062026613,-0.014392263459659212,0.014251640100101987,-0.09875766988560353,0.01386738416282062,0.018824263008817975,0.012690257336976474,-0.011129184453353185,0.137714376315871,-0.007208096395876014,0.012344701976854156,-0.008705698554205419,-0.001321335700683321,-0.03275405974198041,0.03598504869390174,-0.019073547915011885,0.013861033445119025,0.00023240545157872703,0.015243618607172353,-0.11455463975108018,0.0011687278481844728,-0.004771921291898946,-0.04128980860329645
2024-04-16,0.01421098490244888,-0.009489403633945341,0.03766035360796227,-0.036785558060493696,0.004795956900020777,-0.02085786009463578,0.012847043159610438,0.00802051413313271,0.012640892412022682,0.006402845321543634,0.0077032452877111,-0.012333890716087785,-0.01861249973713535,-0.014574949025619075,0.014807629399596121,0.019811887330907864,-0.0019985097950589318,0.0032846389643529958,0.01127989315335368,0.01225432292263566,-0.012021576900574553,0.0016761979200836429,0.018705449496755257,0.0032833531390198873,-0.014848281047379166,-0.013895364621308194,0.013215313442466086,0.011424057634785476,-0.014392392206095748,0.021578391252867188,-0.09206949217424297,0.013199376669506694,0.017923868004747073,0.012360995597700864,-0.012617745139994264,0.13966677908034383,-0.004558453310789604,0.011737246896534695,-0.009026979715465256,-0.00199361612854313,-0.03177385873004128,0.03566147664748796,-0.018980066147014793,0.017164040548121644,-0.0007796382529620834,0.014715339144239992,-0.11129332298463049,0.001967907030040727,-0.005177522840341148,-0.04191901873764146
2024-04-17,0.01451977936788796,-0.011664880717637991,0.040486554135513025,-0.04187025459809878,0.004562116382606534,-0.023706736474425838,0.013091549104076625,0.008361310655535014,0.013246216947622522,0.006021668226953566,0.007701496543801924,-0.016051790720479252,-0.02161700493592651,-0.017397067954598812,0.015195469918459202,0.020358059919814972,-0.0033728585891441183,0.002822764467713422,0.011360214671974454,0.012683580648484795,-0.014351640094911852,0.0007676356334141574,0.020706871032616602,0.0026279797875281255,-0.017373057491368412,-0.016082612558721888,0.013072117970856353,0.012021063313652876,-0.016170906991258876,0.02064671347431442,-0.06187334714041391,0.013951289004462693,0.018343281384552105,0.00934423231455412,-0.015858549469911807,0.13638666862331084,-0.003009239063769465,0.011896134356332496,-0.010040144814740672,-0.0032002070728648726,-0.012583522148858085,0.037148780680032155,-0.0208329406157406,0.018630724449890605,-0.0023019437484249378,0.011390828671850288,-0.11699454126153203,0.002654898312188184,-0.006523449005151851,-0.04712330453201952
2024-04-18,0.014276234232789549,-0.012399813957479935,0.04179055272413977,-0.044859472844177725,0.004023195203120669,-0.025549984016438185,0.012978403839346403,0.008721391128515775,0.014079152093446949,0.005532762290221492,0.007904149531808364,-0.018823851877805383,-0.02346480423595513,-0.01914079149787292,0.015092049850352894,0.020050929414736525,-0.004370685927367211,-0.0002748604678275283,0.011135848278224685,0.01284960673415438,-0.0156482340412359,5.2608333374270127e-05,0.022150328487087787,0.0007335103741746116,-0.01889930474696366,-0.017325161674607927,0.012587665791036024,0.011732622669702288,-0.016784962382713667,0.0197547120807211,-0.06005879307288446,0.013467551879173905,0.018031871056775766,0.009204749007787205,-0.017962135649668753,0.13900844234215826,-0.00027589823042566835,0.011748270929694384,-0.010152696757564316,-0.004032150490210909,-0.010527081689291649,0.03844900534898601,0.0020956943630097615,0.018883947216979863,-0.003665662044727121,0.010484953424772687,-0.1184228709086626,0.003179791373708716,-0.007419966268671692,-0.049940817217447496
